<?xml version="1.0"?>
<opencv_storage>
<cascade>
  <stageType>BOOST</stageType>
  <featureType>HAAR</featureType>
  <height>25</height>
  <width>25</width>
  <stageParams>
    <boostType>GAB</boostType>
    <minHitRate>9.9500000476837158e-01</minHitRate>
    <maxFalseAlarm>5.0000000000000000e-01</maxFalseAlarm>
    <weightTrimRate>9.4999999999999996e-01</weightTrimRate>
    <maxDepth>1</maxDepth>
    <maxWeakCount>100</maxWeakCount></stageParams>
  <featureParams>
    <maxCatCount>0</maxCatCount>
    <featSize>1</featSize>
    <mode>BASIC</mode></featureParams>
  <stageNum>17</stageNum>
  <stages>
    <!-- stage 0 -->
    <_>
      <maxWeakCount>1</maxWeakCount>
      <stageThreshold>9.8734176158905029e-01</stageThreshold>
      <weakClassifiers>
        <_>
          <internalNodes>
            0 -1 47 -1.3660803437232971e-01</internalNodes>
          <leafValues>
            9.8734176158905029e-01 -9.9942761659622192e-01</leafValues></_></weakClassifiers></_>
    <!-- stage 1 -->
    <_>
      <maxWeakCount>3</maxWeakCount>
      <stageThreshold>-1.3627488613128662e+00</stageThreshold>
      <weakClassifiers>
        <_>
          <internalNodes>
            0 -1 64 6.8940334022045135e-03</internalNodes>
          <leafValues>
            -8.9408284425735474e-01 5.0983607769012451e-01</leafValues></_>
        <_>
          <internalNodes>
            0 -1 21 1.8292233347892761e-02</internalNodes>
          <leafValues>
            -8.1133544445037842e-01 4.8957917094230652e-01</leafValues></_>
        <_>
          <internalNodes>
            0 -1 44 -2.0487554371356964e-02</internalNodes>
          <leafValues>
            3.4266951680183411e-01 -9.4418048858642578e-01</leafValues></_></weakClassifiers></_>
    <!-- stage 2 -->
    <_>
      <maxWeakCount>5</maxWeakCount>
      <stageThreshold>-1.6641793251037598e+00</stageThreshold>
      <weakClassifiers>
        <_>
          <internalNodes>
            0 -1 60 7.1512069553136826e-03</internalNodes>
          <leafValues>
            -8.8252657651901245e-01 4.8679867386817932e-01</leafValues></_>
        <_>
          <internalNodes>
            0 -1 61 9.2432610690593719e-03</internalNodes>
          <leafValues>
            -8.5426706075668335e-01 4.6435084939002991e-01</leafValues></_>
        <_>
          <internalNodes>
            0 -1 27 -5.7373782619833946e-03</internalNodes>
          <leafValues>
            3.0947688221931458e-01 -9.0090560913085938e-01</leafValues></_>
        <_>
          <internalNodes>
            0 -1 79 1.2987225782126188e-03</internalNodes>
          <leafValues>
            -5.8495491743087769e-01 5.7392996549606323e-01</leafValues></_>
        <_>
          <internalNodes>
            0 -1 13 -4.2359948158264160e-02</internalNodes>
          <leafValues>
            3.4809231758117676e-01 -9.3956536054611206e-01</leafValues></_></weakClassifiers></_>
    <!-- stage 3 -->
    <_>
      <maxWeakCount>5</maxWeakCount>
      <stageThreshold>-1.3631072044372559e+00</stageThreshold>
      <weakClassifiers>
        <_>
          <internalNodes>
            0 -1 73 8.7964087724685669e-03</internalNodes>
          <leafValues>
            -9.1952955722808838e-01 4.1709277033805847e-01</leafValues></_>
        <_>
          <internalNodes>
            0 -1 4 -5.2731418982148170e-03</internalNodes>
          <leafValues>
            5.2541464567184448e-01 -7.9576319456100464e-01</leafValues></_>
        <_>
          <internalNodes>
            0 -1 24 -1.3502710498869419e-03</internalNodes>
          <leafValues>
            4.4790136814117432e-01 -8.0334615707397461e-01</leafValues></_>
        <_>
          <internalNodes>
            0 -1 55 -3.6892797797918320e-03</internalNodes>
          <leafValues>
            3.4329357743263245e-01 -8.3585292100906372e-01</leafValues></_>
        <_>
          <internalNodes>
            0 -1 83 -3.2157912850379944e-02</internalNodes>
          <leafValues>
            8.1223809719085693e-01 -4.2385232448577881e-01</leafValues></_></weakClassifiers></_>
    <!-- stage 4 -->
    <_>
      <maxWeakCount>6</maxWeakCount>
      <stageThreshold>-1.7836842536926270e+00</stageThreshold>
      <weakClassifiers>
        <_>
          <internalNodes>
            0 -1 40 8.5616763681173325e-03</internalNodes>
          <leafValues>
            -7.4847561120986938e-01 8.2228916883468628e-01</leafValues></_>
        <_>
          <internalNodes>
            0 -1 77 2.0628804340958595e-03</internalNodes>
          <leafValues>
            -7.2054958343505859e-01 4.8862564563751221e-01</leafValues></_>
        <_>
          <internalNodes>
            0 -1 3 2.9405336827039719e-02</internalNodes>
          <leafValues>
            -4.2347556352615356e-01 9.0276533365249634e-01</leafValues></_>
        <_>
          <internalNodes>
            0 -1 8 -1.1744098737835884e-02</internalNodes>
          <leafValues>
            -9.6527993679046631e-01 3.9754241704940796e-01</leafValues></_>
        <_>
          <internalNodes>
            0 -1 48 2.1777364891022444e-03</internalNodes>
          <leafValues>
            -7.4764698743820190e-01 4.7305405139923096e-01</leafValues></_>
        <_>
          <internalNodes>
            0 -1 12 2.9474575072526932e-02</internalNodes>
          <leafValues>
            4.5892107486724854e-01 -8.7909609079360962e-01</leafValues></_></weakClassifiers></_>
    <!-- stage 5 -->
    <_>
      <maxWeakCount>4</maxWeakCount>
      <stageThreshold>-1.3122659921646118e+00</stageThreshold>
      <weakClassifiers>
        <_>
          <internalNodes>
            0 -1 36 1.1163608171045780e-02</internalNodes>
          <leafValues>
            -9.3082189559936523e-01 1.8928571045398712e-01</leafValues></_>
        <_>
          <internalNodes>
            0 -1 15 -7.7864183112978935e-03</internalNodes>
          <leafValues>
            3.0313482880592346e-01 -7.8222340345382690e-01</leafValues></_>
        <_>
          <internalNodes>
            0 -1 38 7.4841873720288277e-03</internalNodes>
          <leafValues>
            3.0868390202522278e-01 -9.2656588554382324e-01</leafValues></_>
        <_>
          <internalNodes>
            0 -1 45 -6.5178662538528442e-02</internalNodes>
          <leafValues>
            -9.9620938301086426e-01 2.4198700487613678e-01</leafValues></_></weakClassifiers></_>
    <!-- stage 6 -->
    <_>
      <maxWeakCount>5</maxWeakCount>
      <stageThreshold>-1.6427681446075439e+00</stageThreshold>
      <weakClassifiers>
        <_>
          <internalNodes>
            0 -1 84 -1.4457559213042259e-02</internalNodes>
          <leafValues>
            4.0190881490707397e-01 -7.5991249084472656e-01</leafValues></_>
        <_>
          <internalNodes>
            0 -1 50 -8.5002351552248001e-03</internalNodes>
          <leafValues>
            4.3499043583869934e-01 -7.6292204856872559e-01</leafValues></_>
        <_>
          <internalNodes>
            0 -1 39 -8.7030947208404541e-02</internalNodes>
          <leafValues>
            -9.1553294658660889e-01 2.8465732932090759e-01</leafValues></_>
        <_>
          <internalNodes>
            0 -1 58 3.3937590196728706e-03</internalNodes>
          <leafValues>
            -7.3256683349609375e-01 3.9907193183898926e-01</leafValues></_>
        <_>
          <internalNodes>
            0 -1 25 -5.5025098845362663e-03</internalNodes>
          <leafValues>
            3.2797589898109436e-01 -6.9415676593780518e-01</leafValues></_></weakClassifiers></_>
    <!-- stage 7 -->
    <_>
      <maxWeakCount>6</maxWeakCount>
      <stageThreshold>-1.4096909761428833e+00</stageThreshold>
      <weakClassifiers>
        <_>
          <internalNodes>
            0 -1 1 6.7732632160186768e-02</internalNodes>
          <leafValues>
            -7.2715705633163452e-01 6.8107300996780396e-01</leafValues></_>
        <_>
          <internalNodes>
            0 -1 30 -1.9316701218485832e-02</internalNodes>
          <leafValues>
            2.7729249000549316e-01 -8.3207249641418457e-01</leafValues></_>
        <_>
          <internalNodes>
            0 -1 71 -4.1125668212771416e-03</internalNodes>
          <leafValues>
            4.0541777014732361e-01 -6.6077423095703125e-01</leafValues></_>
        <_>
          <internalNodes>
            0 -1 78 -1.4952105470001698e-02</internalNodes>
          <leafValues>
            -8.6630576848983765e-01 3.1437620520591736e-01</leafValues></_>
        <_>
          <internalNodes>
            0 -1 81 -3.0927603802410886e-05</internalNodes>
          <leafValues>
            3.2288008928298950e-01 -7.8260058164596558e-01</leafValues></_>
        <_>
          <internalNodes>
            0 -1 57 -7.3328502476215363e-03</internalNodes>
          <leafValues>
            -9.7911196947097778e-01 2.4437347054481506e-01</leafValues></_></weakClassifiers></_>
    <!-- stage 8 -->
    <_>
      <maxWeakCount>5</maxWeakCount>
      <stageThreshold>-1.4490729570388794e+00</stageThreshold>
      <weakClassifiers>
        <_>
          <internalNodes>
            0 -1 31 -5.9634644538164139e-02</internalNodes>
          <leafValues>
            6.8794327974319458e-01 -7.4069321155548096e-01</leafValues></_>
        <_>
          <internalNodes>
            0 -1 59 -6.6814609454013407e-05</internalNodes>
          <leafValues>
            4.1413322091102600e-01 -7.8102385997772217e-01</leafValues></_>
        <_>
          <internalNodes>
            0 -1 23 4.4315820559859276e-05</internalNodes>
          <leafValues>
            -5.1617431640625000e-01 6.0953140258789063e-01</leafValues></_>
        <_>
          <internalNodes>
            0 -1 29 1.6816448420286179e-02</internalNodes>
          <leafValues>
            3.3642983436584473e-01 -9.1638523340225220e-01</leafValues></_>
        <_>
          <internalNodes>
            0 -1 52 -1.4939174056053162e-02</internalNodes>
          <leafValues>
            -9.5228505134582520e-01 3.1004649400711060e-01</leafValues></_></weakClassifiers></_>
    <!-- stage 9 -->
    <_>
      <maxWeakCount>6</maxWeakCount>
      <stageThreshold>-1.4078829288482666e+00</stageThreshold>
      <weakClassifiers>
        <_>
          <internalNodes>
            0 -1 6 -3.1652458012104034e-02</internalNodes>
          <leafValues>
            8.2394367456436157e-01 -7.1130955219268799e-01</leafValues></_>
        <_>
          <internalNodes>
            0 -1 22 1.4772783964872360e-02</internalNodes>
          <leafValues>
            -5.0434565544128418e-01 8.6872738599777222e-01</leafValues></_>
        <_>
          <internalNodes>
            0 -1 42 8.2071349024772644e-03</internalNodes>
          <leafValues>
            3.6822926998138428e-01 -9.3055433034896851e-01</leafValues></_>
        <_>
          <internalNodes>
            0 -1 67 4.3521948100533336e-05</internalNodes>
          <leafValues>
            -5.5770158767700195e-01 5.5083549022674561e-01</leafValues></_>
        <_>
          <internalNodes>
            0 -1 82 -4.1168369352817535e-02</internalNodes>
          <leafValues>
            7.8083956241607666e-01 -3.7052294611930847e-01</leafValues></_>
        <_>
          <internalNodes>
            0 -1 41 -3.2128356397151947e-02</internalNodes>
          <leafValues>
            -9.7906768321990967e-01 3.6776751279830933e-01</leafValues></_></weakClassifiers></_>
    <!-- stage 10 -->
    <_>
      <maxWeakCount>5</maxWeakCount>
      <stageThreshold>-1.4720926284790039e+00</stageThreshold>
      <weakClassifiers>
        <_>
          <internalNodes>
            0 -1 0 8.4210589528083801e-02</internalNodes>
          <leafValues>
            -7.0630764961242676e-01 7.3514431715011597e-01</leafValues></_>
        <_>
          <internalNodes>
            0 -1 70 4.6094992285361513e-05</internalNodes>
          <leafValues>
            -7.8005903959274292e-01 3.6966603994369507e-01</leafValues></_>
        <_>
          <internalNodes>
            0 -1 16 2.4162787944078445e-02</internalNodes>
          <leafValues>
            3.0622670054435730e-01 -8.9541614055633545e-01</leafValues></_>
        <_>
          <internalNodes>
            0 -1 74 4.2154613765887916e-05</internalNodes>
          <leafValues>
            -5.0704944133758545e-01 5.2077931165695190e-01</leafValues></_>
        <_>
          <internalNodes>
            0 -1 11 -2.2326359525322914e-02</internalNodes>
          <leafValues>
            -9.3462830781936646e-01 3.2225748896598816e-01</leafValues></_></weakClassifiers></_>
    <!-- stage 11 -->
    <_>
      <maxWeakCount>6</maxWeakCount>
      <stageThreshold>-1.9811366796493530e+00</stageThreshold>
      <weakClassifiers>
        <_>
          <internalNodes>
            0 -1 32 2.0267896354198456e-02</internalNodes>
          <leafValues>
            -6.9829082489013672e-01 7.4422734975814819e-01</leafValues></_>
        <_>
          <internalNodes>
            0 -1 51 -5.7171055232174695e-05</internalNodes>
          <leafValues>
            4.6574789285659790e-01 -6.9713187217712402e-01</leafValues></_>
        <_>
          <internalNodes>
            0 -1 76 4.4412961869966239e-05</internalNodes>
          <leafValues>
            -5.7752120494842529e-01 4.6117466688156128e-01</leafValues></_>
        <_>
          <internalNodes>
            0 -1 63 -7.3267938569188118e-03</internalNodes>
          <leafValues>
            2.9227656126022339e-01 -9.0985614061355591e-01</leafValues></_>
        <_>
          <internalNodes>
            0 -1 68 4.6483448386425152e-05</internalNodes>
          <leafValues>
            -5.7578665018081665e-01 4.5541465282440186e-01</leafValues></_>
        <_>
          <internalNodes>
            0 -1 34 9.3629751354455948e-03</internalNodes>
          <leafValues>
            2.7531722187995911e-01 -9.2284703254699707e-01</leafValues></_></weakClassifiers></_>
    <!-- stage 12 -->
    <_>
      <maxWeakCount>5</maxWeakCount>
      <stageThreshold>-1.5790618658065796e+00</stageThreshold>
      <weakClassifiers>
        <_>
          <internalNodes>
            0 -1 10 2.4745009839534760e-02</internalNodes>
          <leafValues>
            -6.8818271160125732e-01 6.5034967660903931e-01</leafValues></_>
        <_>
          <internalNodes>
            0 -1 66 1.3916205614805222e-02</internalNodes>
          <leafValues>
            -7.9518294334411621e-01 2.9055580496788025e-01</leafValues></_>
        <_>
          <internalNodes>
            0 -1 53 6.1726626881863922e-05</internalNodes>
          <leafValues>
            -5.9800291061401367e-01 3.4757250547409058e-01</leafValues></_>
        <_>
          <internalNodes>
            0 -1 28 -3.9694545557722449e-04</internalNodes>
          <leafValues>
            2.4484586715698242e-01 -8.2450562715530396e-01</leafValues></_>
        <_>
          <internalNodes>
            0 -1 7 -2.9658654704689980e-02</internalNodes>
          <leafValues>
            -9.1810792684555054e-01 2.5746089220046997e-01</leafValues></_></weakClassifiers></_>
    <!-- stage 13 -->
    <_>
      <maxWeakCount>5</maxWeakCount>
      <stageThreshold>-1.3220515251159668e+00</stageThreshold>
      <weakClassifiers>
        <_>
          <internalNodes>
            0 -1 5 -3.8512080907821655e-02</internalNodes>
          <leafValues>
            7.6534295082092285e-01 -6.9797331094741821e-01</leafValues></_>
        <_>
          <internalNodes>
            0 -1 75 -1.2902007438242435e-04</internalNodes>
          <leafValues>
            5.4432994127273560e-01 -6.3845497369766235e-01</leafValues></_>
        <_>
          <internalNodes>
            0 -1 19 -2.7411982882767916e-03</internalNodes>
          <leafValues>
            3.6539462208747864e-01 -6.7840921878814697e-01</leafValues></_>
        <_>
          <internalNodes>
            0 -1 17 -7.3474068194627762e-03</internalNodes>
          <leafValues>
            4.1861280798912048e-01 -5.9372878074645996e-01</leafValues></_>
        <_>
          <internalNodes>
            0 -1 72 -1.9679289311170578e-02</internalNodes>
          <leafValues>
            -9.0861177444458008e-01 3.1105956435203552e-01</leafValues></_></weakClassifiers></_>
    <!-- stage 14 -->
    <_>
      <maxWeakCount>6</maxWeakCount>
      <stageThreshold>-1.4920326471328735e+00</stageThreshold>
      <weakClassifiers>
        <_>
          <internalNodes>
            0 -1 26 -1.2608469696715474e-03</internalNodes>
          <leafValues>
            9.2217132449150085e-02 -8.2741779088973999e-01</leafValues></_>
        <_>
          <internalNodes>
            0 -1 9 5.0177067518234253e-02</internalNodes>
          <leafValues>
            -4.2504614591598511e-01 7.1471536159515381e-01</leafValues></_>
        <_>
          <internalNodes>
            0 -1 18 -4.0254935622215271e-02</internalNodes>
          <leafValues>
            2.7398097515106201e-01 -9.4440507888793945e-01</leafValues></_>
        <_>
          <internalNodes>
            0 -1 35 -2.5074388831853867e-03</internalNodes>
          <leafValues>
            2.4847152829170227e-01 -7.6001000404357910e-01</leafValues></_>
        <_>
          <internalNodes>
            0 -1 80 -1.0297344997525215e-02</internalNodes>
          <leafValues>
            -9.0463918447494507e-01 2.2409588098526001e-01</leafValues></_>
        <_>
          <internalNodes>
            0 -1 54 1.0125642642378807e-02</internalNodes>
          <leafValues>
            1.4261791110038757e-01 -9.1053342819213867e-01</leafValues></_></weakClassifiers></_>
    <!-- stage 15 -->
    <_>
      <maxWeakCount>7</maxWeakCount>
      <stageThreshold>-1.9241214990615845e+00</stageThreshold>
      <weakClassifiers>
        <_>
          <internalNodes>
            0 -1 46 7.9950671643018723e-03</internalNodes>
          <leafValues>
            -7.4706208705902100e-01 2.6315790414810181e-01</leafValues></_>
        <_>
          <internalNodes>
            0 -1 20 -3.1172330491244793e-03</internalNodes>
          <leafValues>
            2.8035941720008850e-01 -6.9161593914031982e-01</leafValues></_>
        <_>
          <internalNodes>
            0 -1 49 -1.0915255174040794e-02</internalNodes>
          <leafValues>
            -8.6390388011932373e-01 2.0573681592941284e-01</leafValues></_>
        <_>
          <internalNodes>
            0 -1 33 5.5460181087255478e-02</internalNodes>
          <leafValues>
            -2.8298941254615784e-01 7.5746160745620728e-01</leafValues></_>
        <_>
          <internalNodes>
            0 -1 56 1.6007451340556145e-03</internalNodes>
          <leafValues>
            -8.7349444627761841e-01 2.5456786155700684e-01</leafValues></_>
        <_>
          <internalNodes>
            0 -1 37 -1.5143303899094462e-03</internalNodes>
          <leafValues>
            2.5508511066436768e-01 -8.0839753150939941e-01</leafValues></_>
        <_>
          <internalNodes>
            0 -1 62 1.3336360454559326e-02</internalNodes>
          <leafValues>
            1.5179683268070221e-01 -8.9679199457168579e-01</leafValues></_></weakClassifiers></_>
    <!-- stage 16 -->
    <_>
      <maxWeakCount>5</maxWeakCount>
      <stageThreshold>-1.5316784381866455e+00</stageThreshold>
      <weakClassifiers>
        <_>
          <internalNodes>
            0 -1 69 4.1457824409008026e-03</internalNodes>
          <leafValues>
            -7.8698903322219849e-01 2.9662522673606873e-01</leafValues></_>
        <_>
          <internalNodes>
            0 -1 14 -9.1413259506225586e-03</internalNodes>
          <leafValues>
            -9.0693718194961548e-01 2.1941283345222473e-01</leafValues></_>
        <_>
          <internalNodes>
            0 -1 2 1.4450986869633198e-02</internalNodes>
          <leafValues>
            -4.6637248992919922e-01 5.5185890197753906e-01</leafValues></_>
        <_>
          <internalNodes>
            0 -1 65 -5.3654855582863092e-04</internalNodes>
          <leafValues>
            3.3858031034469604e-01 -6.7864131927490234e-01</leafValues></_>
        <_>
          <internalNodes>
            0 -1 43 -3.4999072551727295e-02</internalNodes>
          <leafValues>
            2.9003995656967163e-01 -7.6130270957946777e-01</leafValues></_></weakClassifiers></_></stages>
  <features>
    <_>
      <rects>
        <_>
          0 0 4 19 -1.</_>
        <_>
          2 0 2 19 2.</_></rects>
      <tilted>0</tilted></_>
    <_>
      <rects>
        <_>
          0 1 4 18 -1.</_>
        <_>
          2 1 2 18 2.</_></rects>
      <tilted>0</tilted></_>
    <_>
      <rects>
        <_>
          0 2 6 4 -1.</_>
        <_>
          3 2 3 4 2.</_></rects>
      <tilted>0</tilted></_>
    <_>
      <rects>
        <_>
          0 3 4 12 -1.</_>
        <_>
          2 3 2 12 2.</_></rects>
      <tilted>0</tilted></_>
    <_>
      <rects>
        <_>
          0 12 16 4 -1.</_>
        <_>
          0 12 8 2 2.</_>
        <_>
          8 14 8 2 2.</_></rects>
      <tilted>0</tilted></_>
    <_>
      <rects>
        <_>
          0 23 24 2 -1.</_>
        <_>
          0 24 24 1 2.</_></rects>
      <tilted>0</tilted></_>
    <_>
      <rects>
        <_>
          1 23 24 2 -1.</_>
        <_>
          1 24 24 1 2.</_></rects>
      <tilted>0</tilted></_>
    <_>
      <rects>
        <_>
          2 6 12 12 -1.</_>
        <_>
          2 12 12 6 2.</_></rects>
      <tilted>0</tilted></_>
    <_>
      <rects>
        <_>
          2 10 18 3 -1.</_>
        <_>
          11 10 9 3 2.</_></rects>
      <tilted>0</tilted></_>
    <_>
      <rects>
        <_>
          2 20 17 4 -1.</_>
        <_>
          2 22 17 2 2.</_></rects>
      <tilted>0</tilted></_>
    <_>
      <rects>
        <_>
          3 0 17 2 -1.</_>
        <_>
          3 1 17 1 2.</_></rects>
      <tilted>0</tilted></_>
    <_>
      <rects>
        <_>
          3 2 20 12 -1.</_>
        <_>
          3 8 20 6 2.</_></rects>
      <tilted>0</tilted></_>
    <_>
      <rects>
        <_>
          3 5 21 12 -1.</_>
        <_>
          3 11 21 6 2.</_></rects>
      <tilted>0</tilted></_>
    <_>
      <rects>
        <_>
          3 15 18 10 -1.</_>
        <_>
          3 20 18 5 2.</_></rects>
      <tilted>0</tilted></_>
    <_>
      <rects>
        <_>
          4 2 6 10 -1.</_>
        <_>
          4 7 6 5 2.</_></rects>
      <tilted>0</tilted></_>
    <_>
      <rects>
        <_>
          4 3 6 14 -1.</_>
        <_>
          7 3 3 14 2.</_></rects>
      <tilted>0</tilted></_>
    <_>
      <rects>
        <_>
          4 3 9 14 -1.</_>
        <_>
          4 10 9 7 2.</_></rects>
      <tilted>0</tilted></_>
    <_>
      <rects>
        <_>
          4 5 6 13 -1.</_>
        <_>
          7 5 3 13 2.</_></rects>
      <tilted>0</tilted></_>
    <_>
      <rects>
        <_>
          4 5 18 20 -1.</_>
        <_>
          4 15 18 10 2.</_></rects>
      <tilted>0</tilted></_>
    <_>
      <rects>
        <_>
          4 7 5 10 -1.</_>
        <_>
          4 12 5 5 2.</_></rects>
      <tilted>0</tilted></_>
    <_>
      <rects>
        <_>
          4 13 14 4 -1.</_>
        <_>
          11 13 7 4 2.</_></rects>
      <tilted>0</tilted></_>
    <_>
      <rects>
        <_>
          4 15 20 8 -1.</_>
        <_>
          4 15 10 4 2.</_>
        <_>
          14 19 10 4 2.</_></rects>
      <tilted>0</tilted></_>
    <_>
      <rects>
        <_>
          4 22 12 2 -1.</_>
        <_>
          4 23 12 1 2.</_></rects>
      <tilted>0</tilted></_>
    <_>
      <rects>
        <_>
          5 0 1 2 -1.</_>
        <_>
          5 1 1 1 2.</_></rects>
      <tilted>0</tilted></_>
    <_>
      <rects>
        <_>
          5 4 6 8 -1.</_>
        <_>
          8 4 3 8 2.</_></rects>
      <tilted>0</tilted></_>
    <_>
      <rects>
        <_>
          5 4 6 11 -1.</_>
        <_>
          8 4 3 11 2.</_></rects>
      <tilted>0</tilted></_>
    <_>
      <rects>
        <_>
          5 7 6 4 -1.</_>
        <_>
          5 9 6 2 2.</_></rects>
      <tilted>0</tilted></_>
    <_>
      <rects>
        <_>
          5 8 4 14 -1.</_>
        <_>
          5 15 4 7 2.</_></rects>
      <tilted>0</tilted></_>
    <_>
      <rects>
        <_>
          5 8 7 10 -1.</_>
        <_>
          5 13 7 5 2.</_></rects>
      <tilted>0</tilted></_>
    <_>
      <rects>
        <_>
          5 9 20 5 -1.</_>
        <_>
          15 9 10 5 2.</_></rects>
      <tilted>0</tilted></_>
    <_>
      <rects>
        <_>
          5 15 4 10 -1.</_>
        <_>
          5 20 4 5 2.</_></rects>
      <tilted>0</tilted></_>
    <_>
      <rects>
        <_>
          5 18 12 4 -1.</_>
        <_>
          5 20 12 2 2.</_></rects>
      <tilted>0</tilted></_>
    <_>
      <rects>
        <_>
          5 21 12 2 -1.</_>
        <_>
          5 22 12 1 2.</_></rects>
      <tilted>0</tilted></_>
    <_>
      <rects>
        <_>
          6 0 17 4 -1.</_>
        <_>
          6 2 17 2 2.</_></rects>
      <tilted>0</tilted></_>
    <_>
      <rects>
        <_>
          6 4 15 6 -1.</_>
        <_>
          6 7 15 3 2.</_></rects>
      <tilted>0</tilted></_>
    <_>
      <rects>
        <_>
          6 5 6 4 -1.</_>
        <_>
          9 5 3 4 2.</_></rects>
      <tilted>0</tilted></_>
    <_>
      <rects>
        <_>
          6 6 16 8 -1.</_>
        <_>
          6 10 16 4 2.</_></rects>
      <tilted>0</tilted></_>
    <_>
      <rects>
        <_>
          6 8 13 10 -1.</_>
        <_>
          6 13 13 5 2.</_></rects>
      <tilted>0</tilted></_>
    <_>
      <rects>
        <_>
          6 10 18 3 -1.</_>
        <_>
          15 10 9 3 2.</_></rects>
      <tilted>0</tilted></_>
    <_>
      <rects>
        <_>
          6 14 2 9 -1.</_>
        <_>
          6 17 2 3 2.</_></rects>
      <tilted>0</tilted></_>
    <_>
      <rects>
        <_>
          6 21 7 2 -1.</_>
        <_>
          6 22 7 1 2.</_></rects>
      <tilted>0</tilted></_>
    <_>
      <rects>
        <_>
          7 3 10 15 -1.</_>
        <_>
          12 3 5 15 2.</_></rects>
      <tilted>0</tilted></_>
    <_>
      <rects>
        <_>
          7 10 12 8 -1.</_>
        <_>
          13 10 6 8 2.</_></rects>
      <tilted>0</tilted></_>
    <_>
      <rects>
        <_>
          7 15 8 10 -1.</_>
        <_>
          7 20 8 5 2.</_></rects>
      <tilted>0</tilted></_>
    <_>
      <rects>
        <_>
          7 17 17 8 -1.</_>
        <_>
          7 21 17 4 2.</_></rects>
      <tilted>0</tilted></_>
    <_>
      <rects>
        <_>
          8 5 9 1 -1.</_>
        <_>
          11 5 3 1 2.</_></rects>
      <tilted>0</tilted></_>
    <_>
      <rects>
        <_>
          8 7 6 4 -1.</_>
        <_>
          8 7 3 2 2.</_>
        <_>
          11 9 3 2 2.</_></rects>
      <tilted>0</tilted></_>
    <_>
      <rects>
        <_>
          8 8 9 9 -1.</_>
        <_>
          11 8 3 9 2.</_></rects>
      <tilted>0</tilted></_>
    <_>
      <rects>
        <_>
          8 9 8 4 -1.</_>
        <_>
          8 11 8 2 2.</_></rects>
      <tilted>0</tilted></_>
    <_>
      <rects>
        <_>
          9 0 6 24 -1.</_>
        <_>
          12 0 3 24 2.</_></rects>
      <tilted>0</tilted></_>
    <_>
      <rects>
        <_>
          9 2 7 6 -1.</_>
        <_>
          9 5 7 3 2.</_></rects>
      <tilted>0</tilted></_>
    <_>
      <rects>
        <_>
          9 6 2 2 -1.</_>
        <_>
          10 6 1 2 2.</_></rects>
      <tilted>0</tilted></_>
    <_>
      <rects>
        <_>
          9 8 12 12 -1.</_>
        <_>
          15 8 6 12 2.</_></rects>
      <tilted>0</tilted></_>
    <_>
      <rects>
        <_>
          9 15 1 4 -1.</_>
        <_>
          9 17 1 2 2.</_></rects>
      <tilted>0</tilted></_>
    <_>
      <rects>
        <_>
          10 0 6 19 -1.</_>
        <_>
          13 0 3 19 2.</_></rects>
      <tilted>0</tilted></_>
    <_>
      <rects>
        <_>
          10 16 2 8 -1.</_>
        <_>
          10 20 2 4 2.</_></rects>
      <tilted>0</tilted></_>
    <_>
      <rects>
        <_>
          11 4 3 14 -1.</_>
        <_>
          11 11 3 7 2.</_></rects>
      <tilted>0</tilted></_>
    <_>
      <rects>
        <_>
          11 4 6 14 -1.</_>
        <_>
          11 11 6 7 2.</_></rects>
      <tilted>0</tilted></_>
    <_>
      <rects>
        <_>
          11 9 12 4 -1.</_>
        <_>
          11 11 12 2 2.</_></rects>
      <tilted>0</tilted></_>
    <_>
      <rects>
        <_>
          11 12 1 4 -1.</_>
        <_>
          11 14 1 2 2.</_></rects>
      <tilted>0</tilted></_>
    <_>
      <rects>
        <_>
          11 15 7 4 -1.</_>
        <_>
          11 17 7 2 2.</_></rects>
      <tilted>0</tilted></_>
    <_>
      <rects>
        <_>
          12 0 10 10 -1.</_>
        <_>
          12 0 5 5 2.</_>
        <_>
          17 5 5 5 2.</_></rects>
      <tilted>0</tilted></_>
    <_>
      <rects>
        <_>
          12 3 2 14 -1.</_>
        <_>
          12 10 2 7 2.</_></rects>
      <tilted>0</tilted></_>
    <_>
      <rects>
        <_>
          12 3 8 22 -1.</_>
        <_>
          12 14 8 11 2.</_></rects>
      <tilted>0</tilted></_>
    <_>
      <rects>
        <_>
          12 7 10 2 -1.</_>
        <_>
          17 7 5 2 2.</_></rects>
      <tilted>0</tilted></_>
    <_>
      <rects>
        <_>
          12 10 1 6 -1.</_>
        <_>
          12 13 1 3 2.</_></rects>
      <tilted>0</tilted></_>
    <_>
      <rects>
        <_>
          13 6 8 16 -1.</_>
        <_>
          17 6 4 16 2.</_></rects>
      <tilted>0</tilted></_>
    <_>
      <rects>
        <_>
          13 8 1 2 -1.</_>
        <_>
          13 9 1 1 2.</_></rects>
      <tilted>0</tilted></_>
    <_>
      <rects>
        <_>
          13 9 1 2 -1.</_>
        <_>
          13 10 1 1 2.</_></rects>
      <tilted>0</tilted></_>
    <_>
      <rects>
        <_>
          13 9 10 1 -1.</_>
        <_>
          18 9 5 1 2.</_></rects>
      <tilted>0</tilted></_>
    <_>
      <rects>
        <_>
          13 15 1 4 -1.</_>
        <_>
          13 17 1 2 2.</_></rects>
      <tilted>0</tilted></_>
    <_>
      <rects>
        <_>
          14 12 4 4 -1.</_>
        <_>
          14 14 4 2 2.</_></rects>
      <tilted>0</tilted></_>
    <_>
      <rects>
        <_>
          15 4 7 14 -1.</_>
        <_>
          15 11 7 7 2.</_></rects>
      <tilted>0</tilted></_>
    <_>
      <rects>
        <_>
          15 6 6 12 -1.</_>
        <_>
          18 6 3 12 2.</_></rects>
      <tilted>0</tilted></_>
    <_>
      <rects>
        <_>
          16 9 2 1 -1.</_>
        <_>
          17 9 1 1 2.</_></rects>
      <tilted>0</tilted></_>
    <_>
      <rects>
        <_>
          16 14 1 2 -1.</_>
        <_>
          16 15 1 1 2.</_></rects>
      <tilted>0</tilted></_>
    <_>
      <rects>
        <_>
          16 16 1 2 -1.</_>
        <_>
          16 17 1 1 2.</_></rects>
      <tilted>0</tilted></_>
    <_>
      <rects>
        <_>
          17 9 4 7 -1.</_>
        <_>
          19 9 2 7 2.</_></rects>
      <tilted>0</tilted></_>
    <_>
      <rects>
        <_>
          17 10 4 12 -1.</_>
        <_>
          17 16 4 6 2.</_></rects>
      <tilted>0</tilted></_>
    <_>
      <rects>
        <_>
          17 11 4 5 -1.</_>
        <_>
          19 11 2 5 2.</_></rects>
      <tilted>0</tilted></_>
    <_>
      <rects>
        <_>
          17 11 3 10 -1.</_>
        <_>
          17 16 3 5 2.</_></rects>
      <tilted>0</tilted></_>
    <_>
      <rects>
        <_>
          18 8 2 12 -1.</_>
        <_>
          18 14 2 6 2.</_></rects>
      <tilted>0</tilted></_>
    <_>
      <rects>
        <_>
          21 7 4 18 -1.</_>
        <_>
          23 7 2 18 2.</_></rects>
      <tilted>0</tilted></_>
    <_>
      <rects>
        <_>
          21 11 4 14 -1.</_>
        <_>
          23 11 2 14 2.</_></rects>
      <tilted>0</tilted></_>
    <_>
      <rects>
        <_>
          23 1 2 24 -1.</_>
        <_>
          24 1 1 24 2.</_></rects>
      <tilted>0</tilted></_></features></cascade>
</opencv_storage>
