<?xml version="1.0"?>
<opencv_storage>
<cascade>
  <stageType>BOOST</stageType>
  <featureType>HAAR</featureType>
  <height>24</height>
  <width>24</width>
  <stageParams>
    <boostType>GAB</boostType>
    <minHitRate>9.9900001287460327e-01</minHitRate>
    <maxFalseAlarm>4.0000000596046448e-01</maxFalseAlarm>
    <weightTrimRate>9.4999999999999996e-01</weightTrimRate>
    <maxDepth>1</maxDepth>
    <maxWeakCount>100</maxWeakCount></stageParams>
  <featureParams>
    <maxCatCount>0</maxCatCount>
    <featSize>1</featSize>
    <mode>BASIC</mode></featureParams>
  <stageNum>10</stageNum>
  <stages>
    <!-- stage 0 -->
    <_>
      <maxWeakCount>2</maxWeakCount>
      <stageThreshold>7.9968012869358063e-04</stageThreshold>
      <weakClassifiers>
        <_>
          <internalNodes>
            0 -1 39 -2.8836983442306519e-01</internalNodes>
          <leafValues>
            1. -9.9920034408569336e-01</leafValues></_>
        <_>
          <internalNodes>
            0 -1 21 -2.6700621843338013e-01</internalNodes>
          <leafValues>
            1. -9.9840253591537476e-01</leafValues></_></weakClassifiers></_>
    <!-- stage 1 -->
    <_>
      <maxWeakCount>7</maxWeakCount>
      <stageThreshold>-1.9933707714080811e+00</stageThreshold>
      <weakClassifiers>
        <_>
          <internalNodes>
            0 -1 69 6.5533486194908619e-03</internalNodes>
          <leafValues>
            -8.7848520278930664e-01 5.5697357654571533e-01</leafValues></_>
        <_>
          <internalNodes>
            0 -1 15 -3.2008551061153412e-02</internalNodes>
          <leafValues>
            4.5066466927528381e-01 -8.5683345794677734e-01</leafValues></_>
        <_>
          <internalNodes>
            0 -1 30 -3.3053704537451267e-03</internalNodes>
          <leafValues>
            5.1807856559753418e-01 -7.3030358552932739e-01</leafValues></_>
        <_>
          <internalNodes>
            0 -1 82 2.7991523966193199e-03</internalNodes>
          <leafValues>
            -7.5340288877487183e-01 4.6336826682090759e-01</leafValues></_>
        <_>
          <internalNodes>
            0 -1 77 -1.5934305265545845e-03</internalNodes>
          <leafValues>
            5.5676829814910889e-01 -5.8218902349472046e-01</leafValues></_>
        <_>
          <internalNodes>
            0 -1 52 -1.6030671074986458e-02</internalNodes>
          <leafValues>
            -7.8074401617050171e-01 4.0252497792243958e-01</leafValues></_>
        <_>
          <internalNodes>
            0 -1 70 -8.8367879390716553e-02</internalNodes>
          <leafValues>
            2.3285891115665436e-01 -9.6868252754211426e-01</leafValues></_></weakClassifiers></_>
    <!-- stage 2 -->
    <_>
      <maxWeakCount>10</maxWeakCount>
      <stageThreshold>-2.3881464004516602e+00</stageThreshold>
      <weakClassifiers>
        <_>
          <internalNodes>
            0 -1 60 -3.2750112004578114e-03</internalNodes>
          <leafValues>
            3.2671755552291870e-01 -8.8036531209945679e-01</leafValues></_>
        <_>
          <internalNodes>
            0 -1 25 -2.8742909431457520e-02</internalNodes>
          <leafValues>
            3.0244338512420654e-01 -8.7485432624816895e-01</leafValues></_>
        <_>
          <internalNodes>
            0 -1 74 -4.2468104511499405e-03</internalNodes>
          <leafValues>
            6.3298189640045166e-01 -6.0546374320983887e-01</leafValues></_>
        <_>
          <internalNodes>
            0 -1 83 4.4625001028180122e-03</internalNodes>
          <leafValues>
            -6.1019718647003174e-01 4.6632355451583862e-01</leafValues></_>
        <_>
          <internalNodes>
            0 -1 5 1.1238338425755501e-02</internalNodes>
          <leafValues>
            -3.3254027366638184e-01 8.1136637926101685e-01</leafValues></_>
        <_>
          <internalNodes>
            0 -1 12 7.4140366632491350e-04</internalNodes>
          <leafValues>
            -3.7905785441398621e-01 6.3287454843521118e-01</leafValues></_>
        <_>
          <internalNodes>
            0 -1 61 -9.4088334590196609e-03</internalNodes>
          <leafValues>
            -6.9986206293106079e-01 3.6030763387680054e-01</leafValues></_>
        <_>
          <internalNodes>
            0 -1 81 -5.6887057144194841e-04</internalNodes>
          <leafValues>
            3.6717978119850159e-01 -6.2307572364807129e-01</leafValues></_>
        <_>
          <internalNodes>
            0 -1 9 7.5635902583599091e-02</internalNodes>
          <leafValues>
            -3.0598247051239014e-01 6.8971991539001465e-01</leafValues></_>
        <_>
          <internalNodes>
            0 -1 13 -1.2899414286948740e-04</internalNodes>
          <leafValues>
            5.2560234069824219e-01 -4.2052066326141357e-01</leafValues></_></weakClassifiers></_>
    <!-- stage 3 -->
    <_>
      <maxWeakCount>10</maxWeakCount>
      <stageThreshold>-1.7531549930572510e+00</stageThreshold>
      <weakClassifiers>
        <_>
          <internalNodes>
            0 -1 46 4.1050580330193043e-03</internalNodes>
          <leafValues>
            -6.7612457275390625e-01 7.4426227807998657e-01</leafValues></_>
        <_>
          <internalNodes>
            0 -1 35 -4.7584537416696548e-02</internalNodes>
          <leafValues>
            4.2730891704559326e-01 -8.4550839662551880e-01</leafValues></_>
        <_>
          <internalNodes>
            0 -1 68 5.5212634615600109e-03</internalNodes>
          <leafValues>
            -7.1334475278854370e-01 4.1195368766784668e-01</leafValues></_>
        <_>
          <internalNodes>
            0 -1 48 4.3043121695518494e-03</internalNodes>
          <leafValues>
            3.3279997110366821e-01 -8.1647878885269165e-01</leafValues></_>
        <_>
          <internalNodes>
            0 -1 28 9.5970910042524338e-03</internalNodes>
          <leafValues>
            3.7581709027290344e-01 -8.3614927530288696e-01</leafValues></_>
        <_>
          <internalNodes>
            0 -1 45 5.0057987682521343e-03</internalNodes>
          <leafValues>
            -5.1322442293167114e-01 5.6496328115463257e-01</leafValues></_>
        <_>
          <internalNodes>
            0 -1 16 3.1743437284603715e-04</internalNodes>
          <leafValues>
            -7.0688724517822266e-01 3.8709327578544617e-01</leafValues></_>
        <_>
          <internalNodes>
            0 -1 31 -2.8028050437569618e-03</internalNodes>
          <leafValues>
            5.2017807960510254e-01 -4.6799632906913757e-01</leafValues></_>
        <_>
          <internalNodes>
            0 -1 58 8.3843860775232315e-03</internalNodes>
          <leafValues>
            3.1495609879493713e-01 -8.1233984231948853e-01</leafValues></_>
        <_>
          <internalNodes>
            0 -1 22 -5.1001638174057007e-02</internalNodes>
          <leafValues>
            -9.2809194326400757e-01 2.9395925998687744e-01</leafValues></_></weakClassifiers></_>
    <!-- stage 4 -->
    <_>
      <maxWeakCount>11</maxWeakCount>
      <stageThreshold>-1.9839521646499634e+00</stageThreshold>
      <weakClassifiers>
        <_>
          <internalNodes>
            0 -1 73 -3.0649323016405106e-03</internalNodes>
          <leafValues>
            3.1738436222076416e-01 -8.4505790472030640e-01</leafValues></_>
        <_>
          <internalNodes>
            0 -1 4 4.5974948443472385e-03</internalNodes>
          <leafValues>
            -5.7114481925964355e-01 6.5569525957107544e-01</leafValues></_>
        <_>
          <internalNodes>
            0 -1 94 -2.5572121143341064e-02</internalNodes>
          <leafValues>
            8.3767664432525635e-01 -3.5467916727066040e-01</leafValues></_>
        <_>
          <internalNodes>
            0 -1 87 -5.7853027101373300e-05</internalNodes>
          <leafValues>
            4.9133679270744324e-01 -5.9560507535934448e-01</leafValues></_>
        <_>
          <internalNodes>
            0 -1 79 -3.6439806222915649e-02</internalNodes>
          <leafValues>
            3.0815112590789795e-01 -8.7404143810272217e-01</leafValues></_>
        <_>
          <internalNodes>
            0 -1 6 2.4075442925095558e-03</internalNodes>
          <leafValues>
            -5.6130456924438477e-01 4.9314385652542114e-01</leafValues></_>
        <_>
          <internalNodes>
            0 -1 10 1.1794350109994411e-02</internalNodes>
          <leafValues>
            3.4523177146911621e-01 -8.8457876443862915e-01</leafValues></_>
        <_>
          <internalNodes>
            0 -1 78 6.6935336217284203e-03</internalNodes>
          <leafValues>
            -4.0496218204498291e-01 7.5094515085220337e-01</leafValues></_>
        <_>
          <internalNodes>
            0 -1 27 6.1521325260400772e-03</internalNodes>
          <leafValues>
            3.3272358775138855e-01 -7.3814153671264648e-01</leafValues></_>
        <_>
          <internalNodes>
            0 -1 49 -1.0452083311975002e-02</internalNodes>
          <leafValues>
            -8.6364054679870605e-01 2.7120214700698853e-01</leafValues></_>
        <_>
          <internalNodes>
            0 -1 63 -6.1402870342135429e-03</internalNodes>
          <leafValues>
            2.1923701465129852e-01 -7.9790610074996948e-01</leafValues></_></weakClassifiers></_>
    <!-- stage 5 -->
    <_>
      <maxWeakCount>9</maxWeakCount>
      <stageThreshold>-1.9158000946044922e+00</stageThreshold>
      <weakClassifiers>
        <_>
          <internalNodes>
            0 -1 20 1.4803444966673851e-02</internalNodes>
          <leafValues>
            -6.4283341169357300e-01 8.7829613685607910e-01</leafValues></_>
        <_>
          <internalNodes>
            0 -1 42 -1.8882309086620808e-03</internalNodes>
          <leafValues>
            4.7124722599983215e-01 -8.0271172523498535e-01</leafValues></_>
        <_>
          <internalNodes>
            0 -1 50 4.7570507740601897e-04</internalNodes>
          <leafValues>
            -6.6815733909606934e-01 4.9303960800170898e-01</leafValues></_>
        <_>
          <internalNodes>
            0 -1 44 -1.5171917155385017e-02</internalNodes>
          <leafValues>
            -9.0229731798171997e-01 3.6322024464607239e-01</leafValues></_>
        <_>
          <internalNodes>
            0 -1 92 -3.3290579915046692e-02</internalNodes>
          <leafValues>
            6.5722447633743286e-01 -4.3225607275962830e-01</leafValues></_>
        <_>
          <internalNodes>
            0 -1 18 4.4567082077264786e-02</internalNodes>
          <leafValues>
            3.2225367426872253e-01 -8.2257413864135742e-01</leafValues></_>
        <_>
          <internalNodes>
            0 -1 41 -7.8619988635182381e-03</internalNodes>
          <leafValues>
            -7.9057675600051880e-01 3.1717368960380554e-01</leafValues></_>
        <_>
          <internalNodes>
            0 -1 66 9.6771828830242157e-03</internalNodes>
          <leafValues>
            -4.1401228308677673e-01 5.8788055181503296e-01</leafValues></_>
        <_>
          <internalNodes>
            0 -1 40 2.6688277721405029e-02</internalNodes>
          <leafValues>
            2.5170132517814636e-01 -8.4917128086090088e-01</leafValues></_></weakClassifiers></_>
    <!-- stage 6 -->
    <_>
      <maxWeakCount>12</maxWeakCount>
      <stageThreshold>-2.0116562843322754e+00</stageThreshold>
      <weakClassifiers>
        <_>
          <internalNodes>
            0 -1 47 -1.3380250334739685e-01</internalNodes>
          <leafValues>
            -9.8556429147720337e-01 1.0121457744389772e-03</leafValues></_>
        <_>
          <internalNodes>
            0 -1 64 3.3375904895365238e-03</internalNodes>
          <leafValues>
            -6.8506431579589844e-01 4.1626462340354919e-01</leafValues></_>
        <_>
          <internalNodes>
            0 -1 29 4.8612849786877632e-03</internalNodes>
          <leafValues>
            -6.3372433185577393e-01 4.3266937136650085e-01</leafValues></_>
        <_>
          <internalNodes>
            0 -1 93 -6.0133144259452820e-02</internalNodes>
          <leafValues>
            7.9659688472747803e-01 -2.9882863163948059e-01</leafValues></_>
        <_>
          <internalNodes>
            0 -1 1 -5.0800140947103500e-02</internalNodes>
          <leafValues>
            -9.3360364437103271e-01 2.9181680083274841e-01</leafValues></_>
        <_>
          <internalNodes>
            0 -1 67 -4.1439069900661707e-04</internalNodes>
          <leafValues>
            5.2308166027069092e-01 -4.6235024929046631e-01</leafValues></_>
        <_>
          <internalNodes>
            0 -1 65 3.6847372539341450e-03</internalNodes>
          <leafValues>
            -4.9751779437065125e-01 4.3705227971076965e-01</leafValues></_>
        <_>
          <internalNodes>
            0 -1 23 2.7125249616801739e-03</internalNodes>
          <leafValues>
            -5.3080230951309204e-01 3.6897680163383484e-01</leafValues></_>
        <_>
          <internalNodes>
            0 -1 7 -5.3410592954605818e-04</internalNodes>
          <leafValues>
            4.7992908954620361e-01 -3.5532870888710022e-01</leafValues></_>
        <_>
          <internalNodes>
            0 -1 85 3.0255233868956566e-03</internalNodes>
          <leafValues>
            -4.5805656909942627e-01 3.8952633738517761e-01</leafValues></_>
        <_>
          <internalNodes>
            0 -1 8 -2.8237655758857727e-02</internalNodes>
          <leafValues>
            -9.5702493190765381e-01 1.7562454938888550e-01</leafValues></_>
        <_>
          <internalNodes>
            0 -1 88 -7.9997372813522816e-04</internalNodes>
          <leafValues>
            6.7158573865890503e-01 -2.9347386956214905e-01</leafValues></_></weakClassifiers></_>
    <!-- stage 7 -->
    <_>
      <maxWeakCount>14</maxWeakCount>
      <stageThreshold>-2.0057880878448486e+00</stageThreshold>
      <weakClassifiers>
        <_>
          <internalNodes>
            0 -1 3 5.3851328790187836e-02</internalNodes>
          <leafValues>
            -6.7260032892227173e-01 6.7244094610214233e-01</leafValues></_>
        <_>
          <internalNodes>
            0 -1 54 4.3844860047101974e-03</internalNodes>
          <leafValues>
            -7.0011442899703979e-01 3.8191449642181396e-01</leafValues></_>
        <_>
          <internalNodes>
            0 -1 19 -3.7270896136760712e-02</internalNodes>
          <leafValues>
            2.5259578227996826e-01 -7.9787594079971313e-01</leafValues></_>
        <_>
          <internalNodes>
            0 -1 90 1.4407777925953269e-03</internalNodes>
          <leafValues>
            3.1709808111190796e-01 -7.1734523773193359e-01</leafValues></_>
        <_>
          <internalNodes>
            0 -1 95 -6.7433603107929230e-03</internalNodes>
          <leafValues>
            5.0306731462478638e-01 -4.3337166309356689e-01</leafValues></_>
        <_>
          <internalNodes>
            0 -1 37 -1.8758971244096756e-02</internalNodes>
          <leafValues>
            7.7893257141113281e-01 -2.1859318017959595e-01</leafValues></_>
        <_>
          <internalNodes>
            0 -1 57 8.2156239077448845e-03</internalNodes>
          <leafValues>
            2.4057795107364655e-01 -7.1807992458343506e-01</leafValues></_>
        <_>
          <internalNodes>
            0 -1 0 -1.8616434186697006e-02</internalNodes>
          <leafValues>
            8.6979210376739502e-01 -2.3874653875827789e-01</leafValues></_>
        <_>
          <internalNodes>
            0 -1 14 -7.5671351514756680e-03</internalNodes>
          <leafValues>
            5.0869864225387573e-01 -3.7505730986595154e-01</leafValues></_>
        <_>
          <internalNodes>
            0 -1 55 -1.4183739200234413e-02</internalNodes>
          <leafValues>
            -9.0615826845169067e-01 2.1462622284889221e-01</leafValues></_>
        <_>
          <internalNodes>
            0 -1 86 -9.0525999665260315e-02</internalNodes>
          <leafValues>
            6.8800294399261475e-01 -2.7088704705238342e-01</leafValues></_>
        <_>
          <internalNodes>
            0 -1 84 8.5648614913225174e-03</internalNodes>
          <leafValues>
            -4.0167173743247986e-01 5.1768040657043457e-01</leafValues></_>
        <_>
          <internalNodes>
            0 -1 72 -1.0813368717208505e-03</internalNodes>
          <leafValues>
            2.6884475350379944e-01 -6.4679116010665894e-01</leafValues></_>
        <_>
          <internalNodes>
            0 -1 51 1.7507985234260559e-02</internalNodes>
          <leafValues>
            1.5848256647586823e-01 -8.5902267694473267e-01</leafValues></_></weakClassifiers></_>
    <!-- stage 8 -->
    <_>
      <maxWeakCount>12</maxWeakCount>
      <stageThreshold>-2.1255125999450684e+00</stageThreshold>
      <weakClassifiers>
        <_>
          <internalNodes>
            0 -1 17 5.3702928125858307e-02</internalNodes>
          <leafValues>
            -6.9134080410003662e-01 7.5471699237823486e-01</leafValues></_>
        <_>
          <internalNodes>
            0 -1 26 -4.0300741791725159e-02</internalNodes>
          <leafValues>
            5.9362041950225830e-01 -4.9503773450851440e-01</leafValues></_>
        <_>
          <internalNodes>
            0 -1 2 6.1543874442577362e-02</internalNodes>
          <leafValues>
            -3.2955357432365417e-01 7.8300547599792480e-01</leafValues></_>
        <_>
          <internalNodes>
            0 -1 96 -1.6799710690975189e-02</internalNodes>
          <leafValues>
            -3.3411473035812378e-01 6.2437719106674194e-01</leafValues></_>
        <_>
          <internalNodes>
            0 -1 34 -1.0799120645970106e-03</internalNodes>
          <leafValues>
            3.6400139331817627e-01 -6.3243991136550903e-01</leafValues></_>
        <_>
          <internalNodes>
            0 -1 53 -1.2001039460301399e-02</internalNodes>
          <leafValues>
            -8.8491803407669067e-01 2.1149110794067383e-01</leafValues></_>
        <_>
          <internalNodes>
            0 -1 59 -1.7424102872610092e-02</internalNodes>
          <leafValues>
            -9.6259868144989014e-01 1.7399179935455322e-01</leafValues></_>
        <_>
          <internalNodes>
            0 -1 62 -6.0548321926034987e-05</internalNodes>
          <leafValues>
            1.9961048662662506e-01 -6.1918324232101440e-01</leafValues></_>
        <_>
          <internalNodes>
            0 -1 11 1.1716946028172970e-02</internalNodes>
          <leafValues>
            1.7766639590263367e-01 -8.1131237745285034e-01</leafValues></_>
        <_>
          <internalNodes>
            0 -1 24 -2.5392966344952583e-02</internalNodes>
          <leafValues>
            -8.3140712976455688e-01 1.2077508866786957e-01</leafValues></_>
        <_>
          <internalNodes>
            0 -1 32 1.7759505659341812e-02</internalNodes>
          <leafValues>
            2.0763821899890900e-01 -7.7308434247970581e-01</leafValues></_>
        <_>
          <internalNodes>
            0 -1 80 7.1272766217589378e-03</internalNodes>
          <leafValues>
            -5.7090884447097778e-01 2.4652366340160370e-01</leafValues></_></weakClassifiers></_>
    <!-- stage 9 -->
    <_>
      <maxWeakCount>10</maxWeakCount>
      <stageThreshold>-1.9845219850540161e+00</stageThreshold>
      <weakClassifiers>
        <_>
          <internalNodes>
            0 -1 76 3.5813450813293457e-02</internalNodes>
          <leafValues>
            -6.7703598737716675e-01 6.8388104438781738e-01</leafValues></_>
        <_>
          <internalNodes>
            0 -1 75 2.6754179998533800e-05</internalNodes>
          <leafValues>
            -5.8720582723617554e-01 5.9194082021713257e-01</leafValues></_>
        <_>
          <internalNodes>
            0 -1 43 3.4042529761791229e-02</internalNodes>
          <leafValues>
            3.4973466396331787e-01 -8.8845360279083252e-01</leafValues></_>
        <_>
          <internalNodes>
            0 -1 71 2.2939244445296936e-05</internalNodes>
          <leafValues>
            -5.1718461513519287e-01 5.5400508642196655e-01</leafValues></_>
        <_>
          <internalNodes>
            0 -1 38 -4.0196239948272705e-02</internalNodes>
          <leafValues>
            -8.5859525203704834e-01 3.4313109517097473e-01</leafValues></_>
        <_>
          <internalNodes>
            0 -1 36 -4.1720710694789886e-02</internalNodes>
          <leafValues>
            7.2828990221023560e-01 -3.8053894042968750e-01</leafValues></_>
        <_>
          <internalNodes>
            0 -1 91 -4.9826929171103984e-05</internalNodes>
          <leafValues>
            5.8585608005523682e-01 -4.0758886933326721e-01</leafValues></_>
        <_>
          <internalNodes>
            0 -1 33 1.3779796659946442e-02</internalNodes>
          <leafValues>
            3.2654973864555359e-01 -8.2597154378890991e-01</leafValues></_>
        <_>
          <internalNodes>
            0 -1 56 4.2827297875192016e-05</internalNodes>
          <leafValues>
            -4.5335853099822998e-01 5.1830583810806274e-01</leafValues></_>
        <_>
          <internalNodes>
            0 -1 89 -1.5094067901372910e-02</internalNodes>
          <leafValues>
            -8.7749201059341431e-01 2.8629833459854126e-01</leafValues></_></weakClassifiers></_></stages>
  <features>
    <_>
      <rects>
        <_>
          0 0 2 21 -1.</_>
        <_>
          1 0 1 21 2.</_></rects>
      <tilted>0</tilted></_>
    <_>
      <rects>
        <_>
          0 0 2 3 -1.</_>
        <_>
          0 1 2 1 2.</_></rects>
      <tilted>0</tilted></_>
    <_>
      <rects>
        <_>
          0 0 4 19 -1.</_>
        <_>
          2 0 2 19 2.</_></rects>
      <tilted>0</tilted></_>
    <_>
      <rects>
        <_>
          0 4 4 14 -1.</_>
        <_>
          2 4 2 14 2.</_></rects>
      <tilted>0</tilted></_>
    <_>
      <rects>
        <_>
          0 6 8 1 -1.</_>
        <_>
          4 6 4 1 2.</_></rects>
      <tilted>0</tilted></_>
    <_>
      <rects>
        <_>
          0 7 8 2 -1.</_>
        <_>
          4 7 4 2 2.</_></rects>
      <tilted>0</tilted></_>
    <_>
      <rects>
        <_>
          0 14 14 4 -1.</_>
        <_>
          0 14 7 2 2.</_>
        <_>
          7 16 7 2 2.</_></rects>
      <tilted>0</tilted></_>
    <_>
      <rects>
        <_>
          0 17 2 5 -1.</_>
        <_>
          1 17 1 5 2.</_></rects>
      <tilted>0</tilted></_>
    <_>
      <rects>
        <_>
          0 21 1 3 -1.</_>
        <_>
          0 22 1 1 2.</_></rects>
      <tilted>0</tilted></_>
    <_>
      <rects>
        <_>
          1 0 19 6 -1.</_>
        <_>
          1 3 19 3 2.</_></rects>
      <tilted>0</tilted></_>
    <_>
      <rects>
        <_>
          1 4 22 4 -1.</_>
        <_>
          1 6 22 2 2.</_></rects>
      <tilted>0</tilted></_>
    <_>
      <rects>
        <_>
          1 7 8 8 -1.</_>
        <_>
          1 11 8 4 2.</_></rects>
      <tilted>0</tilted></_>
    <_>
      <rects>
        <_>
          1 11 8 2 -1.</_>
        <_>
          1 11 4 1 2.</_>
        <_>
          5 12 4 1 2.</_></rects>
      <tilted>0</tilted></_>
    <_>
      <rects>
        <_>
          1 20 2 3 -1.</_>
        <_>
          2 20 1 3 2.</_></rects>
      <tilted>0</tilted></_>
    <_>
      <rects>
        <_>
          2 1 6 15 -1.</_>
        <_>
          5 1 3 15 2.</_></rects>
      <tilted>0</tilted></_>
    <_>
      <rects>
        <_>
          2 10 14 12 -1.</_>
        <_>
          2 16 14 6 2.</_></rects>
      <tilted>0</tilted></_>
    <_>
      <rects>
        <_>
          2 17 18 5 -1.</_>
        <_>
          11 17 9 5 2.</_></rects>
      <tilted>0</tilted></_>
    <_>
      <rects>
        <_>
          3 0 14 4 -1.</_>
        <_>
          3 2 14 2 2.</_></rects>
      <tilted>0</tilted></_>
    <_>
      <rects>
        <_>
          3 3 15 14 -1.</_>
        <_>
          3 10 15 7 2.</_></rects>
      <tilted>0</tilted></_>
    <_>
      <rects>
        <_>
          3 15 20 8 -1.</_>
        <_>
          3 19 20 4 2.</_></rects>
      <tilted>0</tilted></_>
    <_>
      <rects>
        <_>
          3 20 12 2 -1.</_>
        <_>
          3 21 12 1 2.</_></rects>
      <tilted>0</tilted></_>
    <_>
      <rects>
        <_>
          4 2 10 18 -1.</_>
        <_>
          4 8 10 6 2.</_></rects>
      <tilted>0</tilted></_>
    <_>
      <rects>
        <_>
          4 4 16 14 -1.</_>
        <_>
          4 11 16 7 2.</_></rects>
      <tilted>0</tilted></_>
    <_>
      <rects>
        <_>
          4 7 10 6 -1.</_>
        <_>
          4 10 10 3 2.</_></rects>
      <tilted>0</tilted></_>
    <_>
      <rects>
        <_>
          4 8 16 7 -1.</_>
        <_>
          12 8 8 7 2.</_></rects>
      <tilted>0</tilted></_>
    <_>
      <rects>
        <_>
          4 15 10 8 -1.</_>
        <_>
          4 19 10 4 2.</_></rects>
      <tilted>0</tilted></_>
    <_>
      <rects>
        <_>
          4 17 13 4 -1.</_>
        <_>
          4 19 13 2 2.</_></rects>
      <tilted>0</tilted></_>
    <_>
      <rects>
        <_>
          5 1 6 22 -1.</_>
        <_>
          8 1 3 22 2.</_></rects>
      <tilted>0</tilted></_>
    <_>
      <rects>
        <_>
          5 2 12 16 -1.</_>
        <_>
          11 2 6 16 2.</_></rects>
      <tilted>0</tilted></_>
    <_>
      <rects>
        <_>
          5 6 8 10 -1.</_>
        <_>
          5 6 4 5 2.</_>
        <_>
          9 11 4 5 2.</_></rects>
      <tilted>0</tilted></_>
    <_>
      <rects>
        <_>
          5 7 6 10 -1.</_>
        <_>
          8 7 3 10 2.</_></rects>
      <tilted>0</tilted></_>
    <_>
      <rects>
        <_>
          5 9 4 11 -1.</_>
        <_>
          7 9 2 11 2.</_></rects>
      <tilted>0</tilted></_>
    <_>
      <rects>
        <_>
          5 10 16 4 -1.</_>
        <_>
          13 10 8 4 2.</_></rects>
      <tilted>0</tilted></_>
    <_>
      <rects>
        <_>
          5 11 10 8 -1.</_>
        <_>
          10 11 5 8 2.</_></rects>
      <tilted>0</tilted></_>
    <_>
      <rects>
        <_>
          5 13 12 4 -1.</_>
        <_>
          11 13 6 4 2.</_></rects>
      <tilted>0</tilted></_>
    <_>
      <rects>
        <_>
          5 16 17 8 -1.</_>
        <_>
          5 20 17 4 2.</_></rects>
      <tilted>0</tilted></_>
    <_>
      <rects>
        <_>
          5 18 12 4 -1.</_>
        <_>
          5 20 12 2 2.</_></rects>
      <tilted>0</tilted></_>
    <_>
      <rects>
        <_>
          5 22 17 2 -1.</_>
        <_>
          5 23 17 1 2.</_></rects>
      <tilted>0</tilted></_>
    <_>
      <rects>
        <_>
          6 0 12 22 -1.</_>
        <_>
          12 0 6 22 2.</_></rects>
      <tilted>0</tilted></_>
    <_>
      <rects>
        <_>
          6 3 9 19 -1.</_>
        <_>
          9 3 3 19 2.</_></rects>
      <tilted>0</tilted></_>
    <_>
      <rects>
        <_>
          6 3 5 16 -1.</_>
        <_>
          6 11 5 8 2.</_></rects>
      <tilted>0</tilted></_>
    <_>
      <rects>
        <_>
          6 4 11 12 -1.</_>
        <_>
          6 10 11 6 2.</_></rects>
      <tilted>0</tilted></_>
    <_>
      <rects>
        <_>
          6 5 6 5 -1.</_>
        <_>
          9 5 3 5 2.</_></rects>
      <tilted>0</tilted></_>
    <_>
      <rects>
        <_>
          6 10 18 8 -1.</_>
        <_>
          15 10 9 8 2.</_></rects>
      <tilted>0</tilted></_>
    <_>
      <rects>
        <_>
          6 11 14 8 -1.</_>
        <_>
          13 11 7 8 2.</_></rects>
      <tilted>0</tilted></_>
    <_>
      <rects>
        <_>
          6 15 8 4 -1.</_>
        <_>
          6 17 8 2 2.</_></rects>
      <tilted>0</tilted></_>
    <_>
      <rects>
        <_>
          6 20 5 2 -1.</_>
        <_>
          6 21 5 1 2.</_></rects>
      <tilted>0</tilted></_>
    <_>
      <rects>
        <_>
          7 0 3 6 -1.</_>
        <_>
          7 2 3 2 2.</_></rects>
      <tilted>0</tilted></_>
    <_>
      <rects>
        <_>
          7 8 13 12 -1.</_>
        <_>
          7 14 13 6 2.</_></rects>
      <tilted>0</tilted></_>
    <_>
      <rects>
        <_>
          7 10 6 9 -1.</_>
        <_>
          10 10 3 9 2.</_></rects>
      <tilted>0</tilted></_>
    <_>
      <rects>
        <_>
          7 10 9 2 -1.</_>
        <_>
          7 11 9 1 2.</_></rects>
      <tilted>0</tilted></_>
    <_>
      <rects>
        <_>
          8 2 8 18 -1.</_>
        <_>
          12 2 4 18 2.</_></rects>
      <tilted>0</tilted></_>
    <_>
      <rects>
        <_>
          8 2 9 16 -1.</_>
        <_>
          8 10 9 8 2.</_></rects>
      <tilted>0</tilted></_>
    <_>
      <rects>
        <_>
          8 8 6 14 -1.</_>
        <_>
          11 8 3 14 2.</_></rects>
      <tilted>0</tilted></_>
    <_>
      <rects>
        <_>
          8 9 10 4 -1.</_>
        <_>
          8 11 10 2 2.</_></rects>
      <tilted>0</tilted></_>
    <_>
      <rects>
        <_>
          8 13 12 6 -1.</_>
        <_>
          14 13 6 6 2.</_></rects>
      <tilted>0</tilted></_>
    <_>
      <rects>
        <_>
          8 15 1 2 -1.</_>
        <_>
          8 16 1 1 2.</_></rects>
      <tilted>0</tilted></_>
    <_>
      <rects>
        <_>
          9 1 14 3 -1.</_>
        <_>
          16 1 7 3 2.</_></rects>
      <tilted>0</tilted></_>
    <_>
      <rects>
        <_>
          9 2 3 22 -1.</_>
        <_>
          9 13 3 11 2.</_></rects>
      <tilted>0</tilted></_>
    <_>
      <rects>
        <_>
          9 3 1 20 -1.</_>
        <_>
          9 13 1 10 2.</_></rects>
      <tilted>0</tilted></_>
    <_>
      <rects>
        <_>
          9 3 7 4 -1.</_>
        <_>
          9 5 7 2 2.</_></rects>
      <tilted>0</tilted></_>
    <_>
      <rects>
        <_>
          9 3 10 12 -1.</_>
        <_>
          9 9 10 6 2.</_></rects>
      <tilted>0</tilted></_>
    <_>
      <rects>
        <_>
          9 4 7 2 -1.</_>
        <_>
          9 5 7 1 2.</_></rects>
      <tilted>0</tilted></_>
    <_>
      <rects>
        <_>
          9 7 3 1 -1.</_>
        <_>
          10 7 1 1 2.</_></rects>
      <tilted>0</tilted></_>
    <_>
      <rects>
        <_>
          9 14 4 4 -1.</_>
        <_>
          9 16 4 2 2.</_></rects>
      <tilted>0</tilted></_>
    <_>
      <rects>
        <_>
          10 14 10 8 -1.</_>
        <_>
          10 14 5 4 2.</_>
        <_>
          15 18 5 4 2.</_></rects>
      <tilted>0</tilted></_>
    <_>
      <rects>
        <_>
          10 15 8 4 -1.</_>
        <_>
          10 17 8 2 2.</_></rects>
      <tilted>0</tilted></_>
    <_>
      <rects>
        <_>
          11 11 4 6 -1.</_>
        <_>
          11 11 2 3 2.</_>
        <_>
          13 14 2 3 2.</_></rects>
      <tilted>0</tilted></_>
    <_>
      <rects>
        <_>
          12 0 8 10 -1.</_>
        <_>
          12 0 4 5 2.</_>
        <_>
          16 5 4 5 2.</_></rects>
      <tilted>0</tilted></_>
    <_>
      <rects>
        <_>
          12 6 8 4 -1.</_>
        <_>
          16 6 4 4 2.</_></rects>
      <tilted>0</tilted></_>
    <_>
      <rects>
        <_>
          12 6 4 12 -1.</_>
        <_>
          12 10 4 4 2.</_></rects>
      <tilted>0</tilted></_>
    <_>
      <rects>
        <_>
          12 8 1 2 -1.</_>
        <_>
          12 9 1 1 2.</_></rects>
      <tilted>0</tilted></_>
    <_>
      <rects>
        <_>
          12 9 7 10 -1.</_>
        <_>
          12 14 7 5 2.</_></rects>
      <tilted>0</tilted></_>
    <_>
      <rects>
        <_>
          12 12 4 4 -1.</_>
        <_>
          12 14 4 2 2.</_></rects>
      <tilted>0</tilted></_>
    <_>
      <rects>
        <_>
          12 14 12 4 -1.</_>
        <_>
          12 14 6 2 2.</_>
        <_>
          18 16 6 2 2.</_></rects>
      <tilted>0</tilted></_>
    <_>
      <rects>
        <_>
          12 15 1 2 -1.</_>
        <_>
          12 16 1 1 2.</_></rects>
      <tilted>0</tilted></_>
    <_>
      <rects>
        <_>
          13 0 9 4 -1.</_>
        <_>
          13 2 9 2 2.</_></rects>
      <tilted>0</tilted></_>
    <_>
      <rects>
        <_>
          13 10 2 6 -1.</_>
        <_>
          13 13 2 3 2.</_></rects>
      <tilted>0</tilted></_>
    <_>
      <rects>
        <_>
          14 0 4 4 -1.</_>
        <_>
          14 2 4 2 2.</_></rects>
      <tilted>0</tilted></_>
    <_>
      <rects>
        <_>
          14 5 3 6 -1.</_>
        <_>
          15 5 1 6 2.</_></rects>
      <tilted>0</tilted></_>
    <_>
      <rects>
        <_>
          14 7 6 14 -1.</_>
        <_>
          17 7 3 14 2.</_></rects>
      <tilted>0</tilted></_>
    <_>
      <rects>
        <_>
          14 9 4 8 -1.</_>
        <_>
          14 13 4 4 2.</_></rects>
      <tilted>0</tilted></_>
    <_>
      <rects>
        <_>
          14 13 6 9 -1.</_>
        <_>
          17 13 3 9 2.</_></rects>
      <tilted>0</tilted></_>
    <_>
      <rects>
        <_>
          15 12 6 10 -1.</_>
        <_>
          18 12 3 10 2.</_></rects>
      <tilted>0</tilted></_>
    <_>
      <rects>
        <_>
          16 8 6 10 -1.</_>
        <_>
          19 8 3 10 2.</_></rects>
      <tilted>0</tilted></_>
    <_>
      <rects>
        <_>
          16 9 4 13 -1.</_>
        <_>
          18 9 2 13 2.</_></rects>
      <tilted>0</tilted></_>
    <_>
      <rects>
        <_>
          16 9 8 12 -1.</_>
        <_>
          20 9 4 12 2.</_></rects>
      <tilted>0</tilted></_>
    <_>
      <rects>
        <_>
          17 7 6 10 -1.</_>
        <_>
          17 12 6 5 2.</_></rects>
      <tilted>0</tilted></_>
    <_>
      <rects>
        <_>
          17 22 1 2 -1.</_>
        <_>
          17 23 1 1 2.</_></rects>
      <tilted>0</tilted></_>
    <_>
      <rects>
        <_>
          18 4 3 14 -1.</_>
        <_>
          18 11 3 7 2.</_></rects>
      <tilted>0</tilted></_>
    <_>
      <rects>
        <_>
          18 6 2 10 -1.</_>
        <_>
          18 11 2 5 2.</_></rects>
      <tilted>0</tilted></_>
    <_>
      <rects>
        <_>
          19 22 1 2 -1.</_>
        <_>
          19 23 1 1 2.</_></rects>
      <tilted>0</tilted></_>
    <_>
      <rects>
        <_>
          20 5 4 19 -1.</_>
        <_>
          22 5 2 19 2.</_></rects>
      <tilted>0</tilted></_>
    <_>
      <rects>
        <_>
          20 6 4 18 -1.</_>
        <_>
          22 6 2 18 2.</_></rects>
      <tilted>0</tilted></_>
    <_>
      <rects>
        <_>
          20 11 4 9 -1.</_>
        <_>
          22 11 2 9 2.</_></rects>
      <tilted>0</tilted></_>
    <_>
      <rects>
        <_>
          22 1 2 23 -1.</_>
        <_>
          23 1 1 23 2.</_></rects>
      <tilted>0</tilted></_>
    <_>
      <rects>
        <_>
          23 18 1 6 -1.</_>
        <_>
          23 20 1 2 2.</_></rects>
      <tilted>0</tilted></_></features></cascade>
</opencv_storage>
