<?xml version="1.0"?>
<opencv_storage>
<stage16>
  <maxWeakCount>5</maxWeakCount>
  <stageThreshold>-1.5316784381866455e+00</stageThreshold>
  <weakClassifiers>
    <_>
      <internalNodes>
        0 -1 150780 4.1457824409008026e-03</internalNodes>
      <leafValues>
        -7.8698903322219849e-01 2.9662522673606873e-01</leafValues></_>
    <_>
      <internalNodes>
        0 -1 58249 -9.1413259506225586e-03</internalNodes>
      <leafValues>
        -9.0693718194961548e-01 2.1941283345222473e-01</leafValues></_>
    <_>
      <internalNodes>
        0 -1 2433 1.4450986869633198e-02</internalNodes>
      <leafValues>
        -4.6637248992919922e-01 5.5185890197753906e-01</leafValues></_>
    <_>
      <internalNodes>
        0 -1 143594 -5.3654855582863092e-04</internalNodes>
      <leafValues>
        3.3858031034469604e-01 -6.7864131927490234e-01</leafValues></_>
    <_>
      <internalNodes>
        0 -1 100778 -3.4999072551727295e-02</internalNodes>
      <leafValues>
        2.9003995656967163e-01 -7.6130270957946777e-01</leafValues></_></weakClassifiers></stage16>
</opencv_storage>
