<?xml version="1.0"?>
<opencv_storage>
<stage5>
  <maxWeakCount>9</maxWeakCount>
  <stageThreshold>-1.9158000946044922e+00</stageThreshold>
  <weakClassifiers>
    <_>
      <internalNodes>
        0 -1 49261 1.4803444966673851e-02</internalNodes>
      <leafValues>
        -6.4283341169357300e-01 8.7829613685607910e-01</leafValues></_>
    <_>
      <internalNodes>
        0 -1 74598 -1.8882309086620808e-03</internalNodes>
      <leafValues>
        4.7124722599983215e-01 -8.0271172523498535e-01</leafValues></_>
    <_>
      <internalNodes>
        0 -1 87050 4.7570507740601897e-04</internalNodes>
      <leafValues>
        -6.6815733909606934e-01 4.9303960800170898e-01</leafValues></_>
    <_>
      <internalNodes>
        0 -1 78068 -1.5171917155385017e-02</internalNodes>
      <leafValues>
        -9.0229731798171997e-01 3.6322024464607239e-01</leafValues></_>
    <_>
      <internalNodes>
        0 -1 158498 -3.3290579915046692e-02</internalNodes>
      <leafValues>
        6.5722447633743286e-01 -4.3225607275962830e-01</leafValues></_>
    <_>
      <internalNodes>
        0 -1 41376 4.4567082077264786e-02</internalNodes>
      <leafValues>
        3.2225367426872253e-01 -8.2257413864135742e-01</leafValues></_>
    <_>
      <internalNodes>
        0 -1 74336 -7.8619988635182381e-03</internalNodes>
      <leafValues>
        -7.9057675600051880e-01 3.1717368960380554e-01</leafValues></_>
    <_>
      <internalNodes>
        0 -1 113507 9.6771828830242157e-03</internalNodes>
      <leafValues>
        -4.1401228308677673e-01 5.8788055181503296e-01</leafValues></_>
    <_>
      <internalNodes>
        0 -1 73377 2.6688277721405029e-02</internalNodes>
      <leafValues>
        2.5170132517814636e-01 -8.4917128086090088e-01</leafValues></_></weakClassifiers></stage5>
</opencv_storage>
