<?xml version="1.0"?>
<opencv_storage>
<stage1>
  <maxWeakCount>7</maxWeakCount>
  <stageThreshold>-1.9933707714080811e+00</stageThreshold>
  <weakClassifiers>
    <_>
      <internalNodes>
        0 -1 124455 6.5533486194908619e-03</internalNodes>
      <leafValues>
        -8.7848520278930664e-01 5.5697357654571533e-01</leafValues></_>
    <_>
      <internalNodes>
        0 -1 34294 -3.2008551061153412e-02</internalNodes>
      <leafValues>
        4.5066466927528381e-01 -8.5683345794677734e-01</leafValues></_>
    <_>
      <internalNodes>
        0 -1 65699 -3.3053704537451267e-03</internalNodes>
      <leafValues>
        5.1807856559753418e-01 -7.3030358552932739e-01</leafValues></_>
    <_>
      <internalNodes>
        0 -1 138177 2.7991523966193199e-03</internalNodes>
      <leafValues>
        -7.5340288877487183e-01 4.6336826682090759e-01</leafValues></_>
    <_>
      <internalNodes>
        0 -1 131859 -1.5934305265545845e-03</internalNodes>
      <leafValues>
        5.5676829814910889e-01 -5.8218902349472046e-01</leafValues></_>
    <_>
      <internalNodes>
        0 -1 91759 -1.6030671074986458e-02</internalNodes>
      <leafValues>
        -7.8074401617050171e-01 4.0252497792243958e-01</leafValues></_>
    <_>
      <internalNodes>
        0 -1 124458 -8.8367879390716553e-02</internalNodes>
      <leafValues>
        2.3285891115665436e-01 -9.6868252754211426e-01</leafValues></_></weakClassifiers></stage1>
</opencv_storage>
