<?xml version="1.0"?>
<opencv_storage>
<stage11>
  <maxWeakCount>17</maxWeakCount>
  <stageThreshold>-2.3040149211883545e+00</stageThreshold>
  <weakClassifiers>
    <_>
      <internalNodes>
        0 -1 1236 6.7620985209941864e-02</internalNodes>
      <leafValues>
        -6.5978300571441650e-01 5.9875583648681641e-01</leafValues></_>
    <_>
      <internalNodes>
        0 -1 139534 1.9819021224975586e-02</internalNodes>
      <leafValues>
        -4.0100902318954468e-01 7.3671096563339233e-01</leafValues></_>
    <_>
      <internalNodes>
        0 -1 105371 5.4132709919940680e-05</internalNodes>
      <leafValues>
        -5.5988699197769165e-01 3.9415121078491211e-01</leafValues></_>
    <_>
      <internalNodes>
        0 -1 109564 -1.0911772027611732e-02</internalNodes>
      <leafValues>
        -8.3685636520385742e-01 2.1135500073432922e-01</leafValues></_>
    <_>
      <internalNodes>
        0 -1 53454 3.5029560327529907e-02</internalNodes>
      <leafValues>
        2.1411268413066864e-01 -7.9058730602264404e-01</leafValues></_>
    <_>
      <internalNodes>
        0 -1 63887 -3.5507220309227705e-03</internalNodes>
      <leafValues>
        2.3821085691452026e-01 -6.7216169834136963e-01</leafValues></_>
    <_>
      <internalNodes>
        0 -1 80672 1.4693757519125938e-02</internalNodes>
      <leafValues>
        -2.4686987698078156e-01 7.0666968822479248e-01</leafValues></_>
    <_>
      <internalNodes>
        0 -1 38595 -8.0325990915298462e-02</internalNodes>
      <leafValues>
        -8.4133589267730713e-01 2.1665000915527344e-01</leafValues></_>
    <_>
      <internalNodes>
        0 -1 161183 -4.5658499002456665e-03</internalNodes>
      <leafValues>
        -2.9315686225891113e-01 5.9343415498733521e-01</leafValues></_>
    <_>
      <internalNodes>
        0 -1 39137 -1.1414142325520515e-02</internalNodes>
      <leafValues>
        4.6269404888153076e-01 -3.5362365841865540e-01</leafValues></_>
    <_>
      <internalNodes>
        0 -1 145502 3.0908496119081974e-03</internalNodes>
      <leafValues>
        2.0097497105598450e-01 -8.0441689491271973e-01</leafValues></_>
    <_>
      <internalNodes>
        0 -1 142138 -6.4121618866920471e-02</internalNodes>
      <leafValues>
        -8.0405986309051514e-01 1.8441034853458405e-01</leafValues></_>
    <_>
      <internalNodes>
        0 -1 159119 1.4101136475801468e-03</internalNodes>
      <leafValues>
        1.3787122070789337e-01 -7.5933980941772461e-01</leafValues></_>
    <_>
      <internalNodes>
        0 -1 68 -1.8085315823554993e-02</internalNodes>
      <leafValues>
        7.8119486570358276e-01 -1.9045306742191315e-01</leafValues></_>
    <_>
      <internalNodes>
        0 -1 97968 -4.9979323521256447e-03</internalNodes>
      <leafValues>
        -7.7359080314636230e-01 1.9318805634975433e-01</leafValues></_>
    <_>
      <internalNodes>
        0 -1 113956 2.2939573973417282e-03</internalNodes>
      <leafValues>
        1.8259271979331970e-01 -6.2234163284301758e-01</leafValues></_>
    <_>
      <internalNodes>
        0 -1 13297 -5.8034969697473571e-05</internalNodes>
      <leafValues>
        4.1480627655982971e-01 -3.5489007830619812e-01</leafValues></_></weakClassifiers></stage11>
</opencv_storage>
