<?xml version="1.0"?>
<opencv_storage>
<stage3>
  <maxWeakCount>10</maxWeakCount>
  <stageThreshold>-1.7531549930572510e+00</stageThreshold>
  <weakClassifiers>
    <_>
      <internalNodes>
        0 -1 80519 4.1050580330193043e-03</internalNodes>
      <leafValues>
        -6.7612457275390625e-01 7.4426227807998657e-01</leafValues></_>
    <_>
      <internalNodes>
        0 -1 69814 -4.7584537416696548e-02</internalNodes>
      <leafValues>
        4.2730891704559326e-01 -8.4550839662551880e-01</leafValues></_>
    <_>
      <internalNodes>
        0 -1 121608 5.5212634615600109e-03</internalNodes>
      <leafValues>
        -7.1334475278854370e-01 4.1195368766784668e-01</leafValues></_>
    <_>
      <internalNodes>
        0 -1 86214 4.3043121695518494e-03</internalNodes>
      <leafValues>
        3.3279997110366821e-01 -8.1647878885269165e-01</leafValues></_>
    <_>
      <internalNodes>
        0 -1 62494 9.5970910042524338e-03</internalNodes>
      <leafValues>
        3.7581709027290344e-01 -8.3614927530288696e-01</leafValues></_>
    <_>
      <internalNodes>
        0 -1 79528 5.0057987682521343e-03</internalNodes>
      <leafValues>
        -5.1322442293167114e-01 5.6496328115463257e-01</leafValues></_>
    <_>
      <internalNodes>
        0 -1 37107 3.1743437284603715e-04</internalNodes>
      <leafValues>
        -7.0688724517822266e-01 3.8709327578544617e-01</leafValues></_>
    <_>
      <internalNodes>
        0 -1 66771 -2.8028050437569618e-03</internalNodes>
      <leafValues>
        5.2017807960510254e-01 -4.6799632906913757e-01</leafValues></_>
    <_>
      <internalNodes>
        0 -1 100141 8.3843860775232315e-03</internalNodes>
      <leafValues>
        3.1495609879493713e-01 -8.1233984231948853e-01</leafValues></_>
    <_>
      <internalNodes>
        0 -1 53488 -5.1001638174057007e-02</internalNodes>
      <leafValues>
        -9.2809194326400757e-01 2.9395925998687744e-01</leafValues></_></weakClassifiers></stage3>
</opencv_storage>
