<?xml version="1.0"?>
<opencv_storage>
<stage9>
  <maxWeakCount>10</maxWeakCount>
  <stageThreshold>-1.9845219850540161e+00</stageThreshold>
  <weakClassifiers>
    <_>
      <internalNodes>
        0 -1 128454 3.5813450813293457e-02</internalNodes>
      <leafValues>
        -6.7703598737716675e-01 6.8388104438781738e-01</leafValues></_>
    <_>
      <internalNodes>
        0 -1 127087 2.6754179998533800e-05</internalNodes>
      <leafValues>
        -5.8720582723617554e-01 5.9194082021713257e-01</leafValues></_>
    <_>
      <internalNodes>
        0 -1 77687 3.4042529761791229e-02</internalNodes>
      <leafValues>
        3.4973466396331787e-01 -8.8845360279083252e-01</leafValues></_>
    <_>
      <internalNodes>
        0 -1 125049 2.2939244445296936e-05</internalNodes>
      <leafValues>
        -5.1718461513519287e-01 5.5400508642196655e-01</leafValues></_>
    <_>
      <internalNodes>
        0 -1 71190 -4.0196239948272705e-02</internalNodes>
      <leafValues>
        -8.5859525203704834e-01 3.4313109517097473e-01</leafValues></_>
    <_>
      <internalNodes>
        0 -1 70228 -4.1720710694789886e-02</internalNodes>
      <leafValues>
        7.2828990221023560e-01 -3.8053894042968750e-01</leafValues></_>
    <_>
      <internalNodes>
        0 -1 157585 -4.9826929171103984e-05</internalNodes>
      <leafValues>
        5.8585608005523682e-01 -4.0758886933326721e-01</leafValues></_>
    <_>
      <internalNodes>
        0 -1 67879 1.3779796659946442e-02</internalNodes>
      <leafValues>
        3.2654973864555359e-01 -8.2597154378890991e-01</leafValues></_>
    <_>
      <internalNodes>
        0 -1 97396 4.2827297875192016e-05</internalNodes>
      <leafValues>
        -4.5335853099822998e-01 5.1830583810806274e-01</leafValues></_>
    <_>
      <internalNodes>
        0 -1 153061 -1.5094067901372910e-02</internalNodes>
      <leafValues>
        -8.7749201059341431e-01 2.8629833459854126e-01</leafValues></_></weakClassifiers></stage9>
</opencv_storage>
