<?xml version="1.0"?>
<opencv_storage>
<stage8>
  <maxWeakCount>12</maxWeakCount>
  <stageThreshold>-2.1255125999450684e+00</stageThreshold>
  <weakClassifiers>
    <_>
      <internalNodes>
        0 -1 38770 5.3702928125858307e-02</internalNodes>
      <leafValues>
        -6.9134080410003662e-01 7.5471699237823486e-01</leafValues></_>
    <_>
      <internalNodes>
        0 -1 59692 -4.0300741791725159e-02</internalNodes>
      <leafValues>
        5.9362041950225830e-01 -4.9503773450851440e-01</leafValues></_>
    <_>
      <internalNodes>
        0 -1 148 6.1543874442577362e-02</internalNodes>
      <leafValues>
        -3.2955357432365417e-01 7.8300547599792480e-01</leafValues></_>
    <_>
      <internalNodes>
        0 -1 162325 -1.6799710690975189e-02</internalNodes>
      <leafValues>
        -3.3411473035812378e-01 6.2437719106674194e-01</leafValues></_>
    <_>
      <internalNodes>
        0 -1 68734 -1.0799120645970106e-03</internalNodes>
      <leafValues>
        3.6400139331817627e-01 -6.3243991136550903e-01</leafValues></_>
    <_>
      <internalNodes>
        0 -1 94861 -1.2001039460301399e-02</internalNodes>
      <leafValues>
        -8.8491803407669067e-01 2.1149110794067383e-01</leafValues></_>
    <_>
      <internalNodes>
        0 -1 100602 -1.7424102872610092e-02</internalNodes>
      <leafValues>
        -9.6259868144989014e-01 1.7399179935455322e-01</leafValues></_>
    <_>
      <internalNodes>
        0 -1 101512 -6.0548321926034987e-05</internalNodes>
      <leafValues>
        1.9961048662662506e-01 -6.1918324232101440e-01</leafValues></_>
    <_>
      <internalNodes>
        0 -1 19965 1.1716946028172970e-02</internalNodes>
      <leafValues>
        1.7766639590263367e-01 -8.1131237745285034e-01</leafValues></_>
    <_>
      <internalNodes>
        0 -1 55918 -2.5392966344952583e-02</internalNodes>
      <leafValues>
        -8.3140712976455688e-01 1.2077508866786957e-01</leafValues></_>
    <_>
      <internalNodes>
        0 -1 67519 1.7759505659341812e-02</internalNodes>
      <leafValues>
        2.0763821899890900e-01 -7.7308434247970581e-01</leafValues></_>
    <_>
      <internalNodes>
        0 -1 136639 7.1272766217589378e-03</internalNodes>
      <leafValues>
        -5.7090884447097778e-01 2.4652366340160370e-01</leafValues></_></weakClassifiers></stage8>
</opencv_storage>
