<?xml version="1.0"?>
<opencv_storage>
<stage15>
  <maxWeakCount>20</maxWeakCount>
  <stageThreshold>-2.3505470752716064e+00</stageThreshold>
  <weakClassifiers>
    <_>
      <internalNodes>
        0 -1 65128 -6.4052119851112366e-03</internalNodes>
      <leafValues>
        -9.9107563495635986e-02 -8.7582564353942871e-01</leafValues></_>
    <_>
      <internalNodes>
        0 -1 95577 -4.6520954929292202e-03</internalNodes>
      <leafValues>
        1.4516523480415344e-01 -7.7728134393692017e-01</leafValues></_>
    <_>
      <internalNodes>
        0 -1 79859 -3.7547655403614044e-02</internalNodes>
      <leafValues>
        2.2990274429321289e-01 -7.2289395332336426e-01</leafValues></_>
    <_>
      <internalNodes>
        0 -1 136639 7.7617634087800980e-03</internalNodes>
      <leafValues>
        -5.8994781970977783e-01 2.5603818893432617e-01</leafValues></_>
    <_>
      <internalNodes>
        0 -1 89479 8.2293571904301643e-03</internalNodes>
      <leafValues>
        -2.7831754088401794e-01 5.6995660066604614e-01</leafValues></_>
    <_>
      <internalNodes>
        0 -1 112352 1.6716871410608292e-02</internalNodes>
      <leafValues>
        2.0472410321235657e-01 -8.0059409141540527e-01</leafValues></_>
    <_>
      <internalNodes>
        0 -1 119738 -8.4959603846073151e-03</internalNodes>
      <leafValues>
        -8.9477473497390747e-01 8.9269846677780151e-02</leafValues></_>
    <_>
      <internalNodes>
        0 -1 55630 -4.3053927947767079e-04</internalNodes>
      <leafValues>
        2.6957604289054871e-01 -4.4748255610466003e-01</leafValues></_>
    <_>
      <internalNodes>
        0 -1 4974 5.7277612388134003e-02</internalNodes>
      <leafValues>
        1.4127363264560699e-01 -8.5834383964538574e-01</leafValues></_>
    <_>
      <internalNodes>
        0 -1 3256 -3.7017405033111572e-02</internalNodes>
      <leafValues>
        8.0183368921279907e-01 -1.8126033246517181e-01</leafValues></_>
    <_>
      <internalNodes>
        0 -1 3226 2.9031705111265182e-02</internalNodes>
      <leafValues>
        -1.8393743038177490e-01 5.5245399475097656e-01</leafValues></_>
    <_>
      <internalNodes>
        0 -1 97097 9.7901458502747118e-05</internalNodes>
      <leafValues>
        -2.0681692659854889e-01 5.0802695751190186e-01</leafValues></_>
    <_>
      <internalNodes>
        0 -1 156190 -1.1374575551599264e-03</internalNodes>
      <leafValues>
        -5.7389295101165771e-01 1.8129269778728485e-01</leafValues></_>
    <_>
      <internalNodes>
        0 -1 61006 4.1103512048721313e-02</internalNodes>
      <leafValues>
        1.3888265192508698e-01 -6.6592401266098022e-01</leafValues></_>
    <_>
      <internalNodes>
        0 -1 136177 5.2785031584789976e-05</internalNodes>
      <leafValues>
        -3.8184589147567749e-01 2.7889919281005859e-01</leafValues></_>
    <_>
      <internalNodes>
        0 -1 47974 -1.7370512709021568e-02</internalNodes>
      <leafValues>
        -8.0163311958312988e-01 1.1953599750995636e-01</leafValues></_>
    <_>
      <internalNodes>
        0 -1 104760 -1.8311180174350739e-02</internalNodes>
      <leafValues>
        7.5308971107006073e-02 -9.1632229089736938e-01</leafValues></_>
    <_>
      <internalNodes>
        0 -1 96790 -1.5779936802573502e-04</internalNodes>
      <leafValues>
        4.2993777990341187e-01 -2.6537898182868958e-01</leafValues></_>
    <_>
      <internalNodes>
        0 -1 154219 -2.1779123693704605e-02</internalNodes>
      <leafValues>
        -5.8014142513275146e-01 1.7335188388824463e-01</leafValues></_>
    <_>
      <internalNodes>
        0 -1 159028 2.0051700994372368e-03</internalNodes>
      <leafValues>
        1.4896062016487122e-01 -7.3699086904525757e-01</leafValues></_></weakClassifiers></stage15>
</opencv_storage>
