<?xml version="1.0"?>
<opencv_storage>
<stage4>
  <maxWeakCount>11</maxWeakCount>
  <stageThreshold>-1.9839521646499634e+00</stageThreshold>
  <weakClassifiers>
    <_>
      <internalNodes>
        0 -1 126474 -3.0649323016405106e-03</internalNodes>
      <leafValues>
        3.1738436222076416e-01 -8.4505790472030640e-01</leafValues></_>
    <_>
      <internalNodes>
        0 -1 6012 4.5974948443472385e-03</internalNodes>
      <leafValues>
        -5.7114481925964355e-01 6.5569525957107544e-01</leafValues></_>
    <_>
      <internalNodes>
        0 -1 159169 -2.5572121143341064e-02</internalNodes>
      <leafValues>
        8.3767664432525635e-01 -3.5467916727066040e-01</leafValues></_>
    <_>
      <internalNodes>
        0 -1 150266 -5.7853027101373300e-05</internalNodes>
      <leafValues>
        4.9133679270744324e-01 -5.9560507535934448e-01</leafValues></_>
    <_>
      <internalNodes>
        0 -1 135823 -3.6439806222915649e-02</internalNodes>
      <leafValues>
        3.0815112590789795e-01 -8.7404143810272217e-01</leafValues></_>
    <_>
      <internalNodes>
        0 -1 11239 2.4075442925095558e-03</internalNodes>
      <leafValues>
        -5.6130456924438477e-01 4.9314385652542114e-01</leafValues></_>
    <_>
      <internalNodes>
        0 -1 17983 1.1794350109994411e-02</internalNodes>
      <leafValues>
        3.4523177146911621e-01 -8.8457876443862915e-01</leafValues></_>
    <_>
      <internalNodes>
        0 -1 134001 6.6935336217284203e-03</internalNodes>
      <leafValues>
        -4.0496218204498291e-01 7.5094515085220337e-01</leafValues></_>
    <_>
      <internalNodes>
        0 -1 61505 6.1521325260400772e-03</internalNodes>
      <leafValues>
        3.3272358775138855e-01 -7.3814153671264648e-01</leafValues></_>
    <_>
      <internalNodes>
        0 -1 86850 -1.0452083311975002e-02</internalNodes>
      <leafValues>
        -8.6364054679870605e-01 2.7120214700698853e-01</leafValues></_>
    <_>
      <internalNodes>
        0 -1 102707 -6.1402870342135429e-03</internalNodes>
      <leafValues>
        2.1923701465129852e-01 -7.9790610074996948e-01</leafValues></_></weakClassifiers></stage4>
</opencv_storage>
